2.171934771005909204e-01,-5.672882562361531988e-01,1.309689182058670909e-02,-1.534534191186015528e+00,-8.994730382733580054e-01,-2.256305309146240320e-02,-1.825903950609798931e+00,-1.253347092298822574e+00,6.670714846648188034e-01,2.339385412700543607e-02,-1.016743996191404431e+00,5.172431490137694571e-02,-5.663956851123943537e-01,-2.153241508667459225e+00,1.045098751942554083e+00,4.939018110421481422e-01,9.849407497078705997e-01,1.240788826484062746e+00,-1.525072245662035142e+00,5.541643778675148235e-01,-3.014139288125305405e-01,-2.408642219907982884e+00,-1.101087087413370025e+00,-8.284990651330945699e-01,-2.797387699966358832e-01,1.975105938206865031e-01,-4.158783370829944870e-01,9.577787552538993276e-01,8.753681156390581419e-01,3.570669936930824795e-01,2.921465783103500136e-01,1.752926239358067184e-01
6.780423724875490887e-02,-4.360497889792528947e-01,-5.005723644450105203e-01,1.533732833336320045e+00,-1.428933039219686951e-01,4.394701860189217935e-01,4.225846766206396432e-01,-5.406179189772477578e-01,8.103807737890987850e-01,5.285223790785763542e-01,-1.002658937093706681e-01,1.891487353292371942e+00,-1.114216854097405562e+00,1.777765668121159326e+00,-2.549670241234330489e-02,6.776393299010738946e-01,-7.833422492653284719e-01,-9.203480167950032209e-01,-6.790354128854085847e-01,-9.403798742029084723e-01,1.153484359063948528e+00,8.595167705873082986e-02,-9.854400757754888662e-01,-1.051181105241956848e+00,3.725897128422242521e-01,9.343181898338605018e-01,-2.991362047342412955e-01,-9.496791625889275945e-01,1.937687138493798145e+00,2.028334756117442517e+00,7.293916534516292627e-01,-1.447068826898854743e+00
-7.310677713788825693e-01,-9.221245497315605499e-02,-1.107889001462166734e+00,1.341753911445916492e+00,9.677996919523197406e-01,2.350972257146730082e-01,1.256724818558032863e+00,2.707823275537564744e-01,-1.029287165329584530e+00,2.420304715300557880e-02,-5.758516518851125587e-01,-2.260891221585361155e+00,5.355642584270136064e-01,-3.893372601449732739e-01,7.019547010422332312e-01,4.045164321564900800e-01,-2.401410806431611533e+00,-1.222697889845946850e+00,3.094315190418285844e-01,1.253206826625510750e+00,-4.737266506656162002e-01,2.493902294727340097e-01,-9.206740719690501562e-01,5.598648051760093391e-01,2.947774104646638804e-01,-4.207752005134658968e-01,-1.125967431114312522e-01,2.354808952816205725e+00,-5.148682712433751973e-01,3.236825806426099628e-01,-1.017145479406066144e+00,-6.770603166387416660e-01
-7.385696291285974435e-02,8.722559057012485573e-01,1.110086226053664138e+00,-8.370540445165034482e-01,9.024148612743880804e-01,5.030659877977720074e-01,-4.780922485153056289e-01,7.897673427050479200e-02,-1.041680851617825088e+00,9.101745962396721179e-01,-5.373220900313840920e-02,-2.901689698912776727e+00,-2.457613412123143548e-01,1.093861942370454088e+00,-3.751125015117534600e-02,1.870462924366299573e+00,-4.563566832865987855e-01,1.795786152506635980e-01,1.328790636802095956e-02,-6.799596393364867319e-01,1.306901676535899171e+00,-9.834865373134187294e-01,1.111935521609818789e+00,4.406767744378140561e-01,-1.071343680539168092e-01,1.441541418423801568e+00,-3.138502676702821792e-01,1.283863144539542978e+00,-3.911358229757055938e-01,-7.645802051829984070e-01,-1.956683181383477854e-01,-7.148344480079873442e-01
-4.852901768927784243e-01,1.128033140681619306e+00,1.729488358622979671e+00,7.898042706515061573e-01,-7.604628891608850028e-02,7.729580138363983943e-02,-1.160578219621730689e+00,-1.320763497164189504e+00,-5.118060746959750551e-01,-3.422872746513286324e-01,5.447578779524726578e-01,6.792277259199704931e-01,1.848020456452240445e+00,-4.977367824203430269e-01,-5.223319168106846933e-01,-1.338505026827106148e+00,1.224689776696153531e+00,1.433067673193357372e+00,-1.886658360506713095e+00,3.243686656583741890e-01,5.940103241356484709e-01,-1.146531758702050013e-01,1.440706037430670439e-01,3.187692935824459339e-01,1.141757354526242274e+00,-1.030597196747307986e+00,6.931703358264182935e-01,-1.173828909160852252e-01,1.187612023960246566e+00,1.156465152891210206e-02,-2.308422270416999211e+00,-7.724233303127190364e-01
-2.325258506591615593e+00,-5.488313077105886340e-01,-2.080433419508129766e-01,4.410501766665504003e-02,-5.420134195541053135e-01,-1.695760352002251503e+00,1.290355517452036915e+00,-3.466382778638942008e-02,-6.179285034958452716e-01,2.619719970156222377e+00,-3.193539547788912247e-01,-4.641277307900105731e-01,-6.114463749474410154e-02,-1.198320475829631748e+00,-9.673335019542183000e-01,-1.030680032327218942e+00,-7.260303862887914628e-01,-8.941478699575918787e-01,1.202941263170677955e+00,-7.822293552608091671e-01,3.795503000200686761e-01,4.505875138371515654e-01,-1.271192728963759011e+00,2.259575248721831242e-01,-2.146093718975143616e-01,2.006624567776155443e-01,-1.590762564118448852e+00,1.039975587176159844e-01,8.737489128850982611e-01,1.387824529507639237e+00,-2.671928506041317264e-01,2.267068232289049856e+00
-7.248590142700340744e-01,1.094533600360433345e+00,-1.161318382747497324e+00,9.537989613902218833e-02,3.975440162469379840e-02,-3.296283961254742323e-01,1.031568900721627990e+00,-1.420487046421414545e+00,6.690726579303796218e-01,-7.112584079710868590e-01,-1.095679792768224470e+00,1.497840015167753114e+00,1.112202450692407855e-02,1.656660980341605027e+00,-1.055185922258487174e+00,2.650393861999025713e+00,3.852000623575250193e-01,4.636046932325035147e-02,-8.327052702995959566e-01,1.322720080149693000e-01,8.689940344102201619e-01,1.114039784896570628e+00,1.020087385974433714e+00,-2.637428033283501991e-02,-1.019039179829737574e+00,-4.507165033691965528e-01,-1.414496364699528330e+00,3.836534267898226158e-01,-2.371101462392027237e+00,-4.401868750856209878e-01,-4.218128373624435157e-01,4.910637409293912015e-01
-9.465453603297983159e-03,-1.650182555402215367e+00,-9.760439479081262082e-01,-2.381493616813075698e-01,1.161152682582304640e+00,5.890375513611466607e-01,-7.611757799079560405e-01,-1.684167417824459445e+00,-2.424714065711300659e+00,-1.041476216288864887e+00,-1.324590832103224036e-01,4.114680180369849616e-01,-1.128490115128053389e-01,3.435085953092672506e-01,3.594229440926972052e-01,-6.217642128427087744e-01,8.280662446981272851e-01,-2.301463024037412874e-01,8.289971489833444229e-01,1.018093344596193495e+00,1.361445211326872129e-01,2.755224331788379555e-01,1.497890816142533332e-01,2.445960358174005256e-01,1.652941082328252542e-01,-1.216943622107474088e+00,-7.443764420775814128e-02,4.535346842924938282e-01,3.676777528019462560e-01,8.147356817120771089e-01,1.363878254442439042e+00,5.823658186366221789e-01
-6.278468379696535706e-01,9.403475333718201989e-01,4.003120871756896126e-01,-3.791804904696021716e-01,1.069922845683107804e-01,2.760960697391364738e-01,4.867537109307693566e-01,-6.374740870264922026e-03,1.065911350974868971e-01,1.006275140035504112e+00,9.619606109591295473e-01,-1.375807384927065780e+00,-2.731504588276176260e-01,-1.219748942972482819e+00,-9.235335473536888662e-01,8.629746895578884747e-01,5.701532521005145959e-01,2.287379149259820998e+00,4.838965308382696395e-02,-8.894548485473149912e-02,6.045479666264128582e-01,7.947756132694702158e-01,-3.652370093567189890e-01,3.231396541517330134e-01,9.722528110341578655e-02,-7.096861512406467121e-01,1.490890672321531218e-01,-6.052728049353273132e-01,-1.755811488067561488e+00,-5.566922762502380939e-01,-4.790949735589619118e-01,-3.396368909300761518e-01
-1.162385606546219918e+00,4.023145670610287494e-01,-5.506132376697395192e-02,6.873051434318572239e-02,1.670899658629275142e-01,-5.940259641675749158e-01,-3.217850939431409762e-01,1.734586008146932201e+00,-1.457633542637082891e-01,-2.085515564308766390e-01,-8.855045952229173567e-01,-5.663971683183678385e-01,8.216167939863899816e-01,-4.499744826752850174e-02,1.647126141865308813e-01,-2.086052834134330958e+00,4.946084647885763963e-01,1.180168344781219875e-01,9.688752095699594280e-01,-7.691122178022758993e-01,7.834160169805206575e-01,1.697368827048091056e-01,-4.692021652378972618e-01,3.111345025840315248e-01,-1.314517257281561990e+00,-1.315343848692740680e+00,-2.988411050731774599e-01,-1.255915516945185439e+00,4.983916998048836811e-01,-8.723942875091420524e-01,-2.115208880768137956e+00,3.148656496210952671e+00
5.783963284604434207e-01,8.177800491920800274e-02,6.694244845854582238e-01,1.142016055555571841e+00,1.614088054643864956e+00,-4.130570688379533451e-01,9.266211800868985327e-01,-4.355492802277884934e-01,-1.341542245970242520e-02,1.476262353777199499e+00,1.040486722635858730e+00,-7.436268985682440436e-01,7.624162324832661763e-01,2.715266668427477992e+00,-1.153270190470542522e-01,-8.802068589535909371e-02,-1.121772021646541662e+00,1.240317526034964146e+00,-7.312512945841822543e-01,-1.696968311727122258e-01,-2.814866253321428591e-01,1.172518158077027639e+00,1.452568049788518723e+00,2.442181822090973287e-02,6.360560698783258859e-02,-2.229982140964361648e+00,7.213408621679250343e-01,-1.317930687954091518e+00,-3.557296491179621767e-01,-1.044157473965719340e+00,1.024612690013193106e+00,-9.078465625539798578e-02
4.829297890798828763e-01,4.501295318521258970e-01,9.322968621975044057e-01,-1.645837052332136119e-01,-1.052677153262685739e+00,4.266573349309475405e-01,4.987044050685835450e-01,-7.975321512023386683e-01,9.240059576892906135e-01,1.306844899326286891e+00,-6.762442905647105817e-01,-1.709072925182683500e+00,7.436782573651460337e-01,-5.890650015951740537e-01,9.876546557063653475e-01,5.724649065873848447e-02,-9.581885701190364646e-01,1.702661150220579955e+00,-1.698104804435909054e+00,-1.137578408775414163e+00,-2.037868237044732356e-01,5.595377245564070456e-01,-1.138402238611880168e+00,-2.837375466788987777e-01,7.139103356284512980e-01,4.134487756362968947e-01,-3.779680660272994319e-01,-7.984497244208403899e-01,-1.548802867588293219e+00,-1.177314359898322227e+00,-5.356903164085535796e-01,2.086784756192815227e+00
-4.019112584264197818e-01,-4.533507664682439597e-01,1.793217556679360225e+00,-8.053926815321843513e-01,1.069399696704149916e+00,-2.173403106332432444e-01,-2.024757449106870499e+00,2.596670224455909892e+00,1.805128905026493369e+00,-4.401164928102561102e-01,-1.465537288151973039e+00,8.326268893724797504e-01,-6.285546435170821233e-01,-3.699814533287658636e-01,7.351289633019146841e-01,-1.867731208476181237e+00,4.351028090616831379e-01,3.951629556427204149e-01,2.838583225065891003e-01,9.030265325010263799e-01,3.446799374706852048e-01,6.559501052808128785e-01,1.699703511438704240e+00,-1.540051441759432253e-02,-4.914253480538134933e-01,8.641403713152806532e-03,6.088019973114717764e-01,-8.111758316353144815e-01,4.152646939883979371e-01,-1.896512180669615577e-01,-1.648705775548405805e-01,2.401951991589292290e-01
1.006834239556827271e+00,-7.913703422379899655e-01,1.131666805722233216e+00,5.708170134510611726e-01,1.210411041167539503e-01,6.429167093983768622e-01,-6.347416632452308471e-01,-1.865166231658831997e+00,1.881906099149780243e+00,-3.439400592759003228e-01,2.615622996048543314e-01,-1.391078436559560094e+00,4.825880783851511646e-01,-5.621477762221493979e-01,1.979464949695593223e-01,-5.159572398397662685e-01,1.045622041719410866e+00,4.685948634095357113e-01,6.046521470704137036e-01,-1.431011543710929201e+00,9.797483335242834768e-01,4.952792608844081568e-01,1.619520176064797479e+00,2.131255110279012488e+00,-1.513898647748757598e-01,-1.819920050088878749e-01,4.104899833038730406e-01,-1.230212703847012978e+00,1.240079480526022765e-01,5.372504980672636599e-01,-3.179415887776824712e-01,1.482816616792786757e+00
1.349574043373507892e-01,2.683323778403516879e+00,1.027992008213008068e+00,4.566498361293730435e-01,5.914399326944673740e-01,-8.824520027078949225e-01,7.680111900490488308e-01,1.388256587344492976e+00,-9.361092347935019431e-01,4.717540289056811331e-01,1.294895797311959029e+00,3.777929582471522552e-01,-9.494150885528925832e-01,-1.592958144959971234e+00,-7.540338262010013448e-01,-8.870699862371971278e-01,-1.205533576689223757e-01,1.081408406705062442e+00,9.569468994923332472e-01,5.023533648703998322e-01,1.897116615873267187e-01,-8.672735167979643209e-03,1.433408476310063628e+00,5.358461644078933439e-01,-1.062438971899316797e+00,-3.581933542271236171e-01,-4.748820096236761601e-01,8.168607930939969508e-01,-5.662374140288686242e-01,-6.017565235199106612e-03,-6.633655115141835479e-01,-1.979176561858955408e+00
6.710523953917010842e-02,4.722169702201335362e-01,-2.584015165993756580e-01,6.068564189421166155e-02,-5.006575947297513540e-01,4.892639633899377727e-01,-1.333409569926082616e+00,-1.314472614965832786e+00,-7.595653873469432327e-01,5.574605983263372089e-01,-8.381037224983396705e-02,-1.290451757481182682e+00,3.531092139553824727e-01,1.157309412202878640e+00,-6.334519032200980337e-01,-3.391920444097411003e-01,-1.920291226476287694e+00,-5.277767038704372915e-01,-5.857772856472088785e-01,-2.201241622013350441e-01,5.038946817447909066e-01,-1.058008306131734244e+00,-9.747212060765277908e-01,-1.548679605421312111e+00,2.360460885310987356e-02,-2.483189992995261663e-01,-2.869828197752067322e-01,-1.010504728544224795e+00,3.109581508503163061e-01,4.661200483098566494e-01,1.301623036305606274e+00,6.376103639932209077e-01
-1.110042367444168843e+00,-1.265596423916585944e-01,-7.581595255674836720e-01,-4.128189999847248770e-01,-1.276888090735710746e+00,4.826306732226656737e-01,9.383472905195161529e-02,1.599517607601503633e+00,-3.771379992956954696e-01,5.970678680017154072e-01,1.812200086216201322e-01,4.586152283594288614e-01,1.286699250283437568e+00,1.021686185176787554e+00,-4.492097816615778783e-01,-1.662994221366956848e-01,9.428331233956294133e-02,7.646407953074821906e-01,-1.023064317855075567e+00,-1.277688512403326593e+00,1.441313929504383085e+00,1.595327314630136939e-01,5.725591647791554717e-01,-9.247426119562450753e-01,-2.010154914938910020e-01,-6.155255776800201417e-01,-1.148322705111435749e+00,-6.675762158673116398e-01,-1.077924362243149137e+00,2.488115915585836779e-02,2.283632424702202179e+00,6.024034553901665978e-01
-9.322417887348352084e-01,-5.056450709303070834e-01,8.791433122269903810e-02,1.948060863868760206e-01,1.319601543967910517e+00,-1.239697194220287235e+00,-1.512507947355130167e+00,-5.438583463217143699e-01,1.855653837672779138e+00,-3.433183947161348448e-01,-6.820964958607410589e-01,2.445215855005667543e-02,4.132196524701001739e-01,5.176560011579370846e-01,1.582097690946979052e+00,9.472932059120966475e-01,8.239136104423312457e-01,3.867610112268509703e-01,-1.226884515419689681e+00,-9.800327612315695713e-01,-5.230636227532362709e-02,-4.247181307412119522e-01,-1.739749855811182355e-01,-8.496172706148996667e-02,-2.330957492644776252e+00,1.466582730864672279e-01,5.087083556214957447e-01,-1.144322692204687852e+00,-8.140692396674389375e-01,-1.048974369520656369e+00,3.206418116344105784e-01,1.692869435199427119e+00
-1.643752363207055811e-01,5.746045038516059966e-01,9.604144334759927570e-01,-4.840857853569899283e-01,4.648726972944540181e-01,1.397628999095604341e+00,6.530399692200170025e-02,2.141759091763293654e-01,2.863489512236655488e-01,2.893559635076901060e+00,-1.375944587351284110e+00,1.352626610480784475e+00,-3.589695789177655035e-03,-1.192375770070083774e-02,-3.932026983585439894e-01,6.346444108796119032e-02,-1.432356151425585866e-01,-1.187587406022070136e+00,-5.392071934194682115e-01,-9.586588018062928152e-01,7.196740816540622143e-01,1.098736506356007947e+00,1.180641388037589445e+00,1.605497291845354058e+00,1.878438628283976009e-01,1.034271300788605519e+00,4.437069025769489472e-01,7.129190467885055948e-01,-3.987410889604044995e-01,1.526117469222951217e-01,-6.693180700193722688e-01,-5.068654356533048855e-01
-6.566908365775799838e-01,4.034660210111048473e-01,-1.164050920765350883e+00,-4.068222594697576411e-01,-9.191756059698578118e-01,4.006629012790083322e-01,1.538498082860870309e+00,3.681738670434240301e-01,-3.790302566410306412e-02,1.574404325506859381e+00,5.537265988896719060e-01,7.273150111678017282e-02,-8.699505624086303346e-01,1.512065250709549558e+00,-1.159184661787149517e+00,5.344750487849840859e-01,6.369112317443829940e-02,2.543410394961443721e+00,-4.208618652055749476e-01,-1.901883910409495893e-01,6.855172809570425629e-01,9.952841501904862165e-01,1.449875193415498309e+00,-2.386337295049155149e-01,-2.233433646905122749e-01,-2.728385764266131885e-01,-6.669995872072611576e-01,8.003983842443171959e-01,9.186369329336487033e-02,6.127422718334970542e-01,8.091532423655249939e-01,-7.510527611770067002e-01
-6.749074490508787383e-01,7.150182402588090014e-01,3.419919326339928012e-01,-9.289803884284989488e-01,9.229621387858008563e-02,-2.296885688347284349e-01,3.666067463451774255e-01,-5.117482501404509998e-01,-9.793303895248589575e-01,-8.651758418692937491e-01,8.893084408926384965e-01,3.675358269343089179e-01,-9.821970081825597276e-01,2.739634611461074388e-03,1.226160695026646819e+00,1.374123111105401529e+00,5.463765572893564126e-02,-3.165330543836343824e-01,1.302934766874523476e+00,-7.555813685857779571e-01,4.232279878374408666e-01,1.020632848021948424e+00,-6.360483746235493507e-01,2.781833093243396782e+00,6.191581162016988049e-01,-2.771002750558523298e-01,-6.520121528639694075e-01,-2.575032133450466110e-01,8.763665649583257666e-01,-1.038132523106624516e+00,-2.285809601486039622e+00,2.693831848127279938e-01
-1.186919215618043921e+00,1.358111160463617795e+00,2.625471054108083346e-01,2.269373847376512099e-01,-3.111724319460534849e-01,3.298943471746635520e-02,-9.176375320208733921e-01,1.375412380819180491e+00,-1.050876405012511616e-01,-8.430120402642409250e-01,-1.345545016956729567e+00,-1.020718220677905519e+00,2.242166947809239641e+00,-6.327903812947009710e-02,2.299503642595375763e-01,9.399559469136048451e-02,-3.745867732676664286e-01,3.951435776831953017e-01,8.082976889580703039e-01,-6.596954026014340000e-01,-4.531928409996284213e-01,-3.399951015535595533e-01,3.320175947897308633e-01,-1.504256980780714348e-01,-1.769635843163468669e+00,3.254532643081807508e-02,-2.921353380063553273e-01,-1.683180665200927906e-01,1.714213975374172527e-01,-1.785186709719187803e+00,3.132616530105137853e-01,6.818125116792957963e-01
1.887963117438320182e-01,1.778385515548563944e+00,-3.229350895412432809e-01,-2.269286646647810102e+00,1.524343362558813864e+00,-7.205011193396337887e-01,-1.251150459273717042e+00,-1.861817753503049344e+00,-1.558499315385855510e+00,1.325840030788160429e-01,-1.062112185362382499e+00,6.153930017315116796e-01,1.381594380539475475e+00,-3.089915983432278135e-01,4.878274849116538414e-01,-8.727313917625207917e-01,1.095150460600978981e+00,1.606094142525050228e-01,-1.550107366312233559e+00,-1.984880847449176089e-01,-8.401635106516531781e-01,1.365851171440272127e-01,2.391424015300593342e-01,8.143956381964979618e-01,1.400134809901090627e+00,-4.901689112978595553e-01,-7.863061396753957544e-01,8.767508963461066729e-02,2.331867661155558213e+00,-5.125389999057836654e-01,7.428505725403492521e-01,-1.579211453388071451e+00
1.492166374990436251e-01,1.377785545131425593e+00,-2.582571889512248031e+00,-8.940520609209303693e-01,7.827669099615061632e-02,-9.216982550880910008e-01,-3.180921792244483237e-01,1.108220800651242177e+00,-2.011095309278540633e+00,-4.377855055229891157e-01,-1.797196924457084843e-01,-6.735456211842917595e-02,8.040597653605946471e-01,1.268493965276323632e+00,-1.299056407500202015e+00,3.493412058707953127e-01,1.441316849303575509e-01,1.800567844025121156e+00,-1.300016761670503396e+00,6.807329338176886235e-01,-3.225138896290580259e-01,1.030136633507102994e-01,9.405713832904980531e-01,-1.718027297980482537e-01,1.593422232661240834e+00,7.142368792824101975e-01,4.108842144529566975e-01,-8.061583951135884440e-01,1.497520643328551948e+00,-9.167635015213561056e-01,-5.592305846239818967e-01,6.573668347534304957e-01
-6.969744494320809780e-01,4.879696159278472667e-01,-5.572546992378276526e-02,-8.523837363850762516e-01,1.372162337319039749e-01,9.397412340214077453e-01,1.154368617807636888e+00,-1.451857773964545240e-01,-7.908330112372934373e-01,1.204361675988445457e+00,1.518584212673346645e+00,-1.248241411721312089e+00,9.714855042254021411e-01,-1.490494297523246026e-01,7.809659206262613562e-01,-1.024522307847671870e-01,1.971882278623516616e+00,-2.568106122122117974e-01,-1.833861704301766871e+00,6.520809645426566270e-01,5.357933306040694177e-01,1.487257587181925134e+00,4.304008304052110989e-01,7.554773590235107639e-01,-1.727935418932512457e-01,1.884613404322693864e+00,-5.361705759245145586e-01,-8.665995303500081404e-01,-5.399276850873480083e-01,-7.143925606592853583e-01,2.020817827330702587e-01,7.199230221920367434e-01
8.470808093888558821e-01,2.166299507243886868e+00,-6.481519251515682756e-01,-1.374811350033109836e+00,-3.831990450171882112e-01,1.062734346787514106e+00,1.324323770625981833e+00,-3.338354824729865555e-01,-2.043377072893692858e-01,7.040909098903227470e-01,5.271738012244001625e-01,-2.100687319955739873e+00,-9.707973842182876512e-01,1.499021637466491752e+00,2.131543936098733383e+00,2.563682223499433199e+00,-8.081437770614738891e-01,-2.710842130971802821e-01,-1.192415028767270131e-02,8.118898946736011202e-02,-4.124187400734222742e-01,-1.352406607889174328e+00,9.068203875102638645e-02,-7.311925960215213127e-01,-3.245405008315342954e-01,-1.686210046851771560e+00,-3.844214234395880725e-01,2.905621162250493494e-01,-1.481542198774951968e+00,5.809925861003670811e-01,1.727572125247363033e+00,3.192418854409522777e-01
1.527857704768576186e+00,-5.590014874400887068e-01,9.271091494093389729e-01,-5.216318637932458868e-01,-5.023524267401650034e-01,2.576613092464324350e-01,8.250835176810707994e-01,1.111174922176042745e+00,-3.026602921737260310e-01,-1.229057880347815268e-01,2.346625213280414401e-01,1.640970753477687616e+00,1.601322548455630601e+00,-6.500065159715011642e-01,2.032251566379094321e+00,-2.036394230906772573e-01,2.114962013509749938e-01,-1.105728861506712457e+00,-8.530510884163903240e-01,1.508357286453132051e+00,-7.587009427676509876e-01,-2.984254429935971897e-01,5.933535396710258869e-01,2.819973853709496492e-01,-2.673994924273397356e-01,2.531773570438269338e+00,5.139521824363930264e-02,1.109346962806682657e-01,6.477062355285369000e-01,4.080981885731507774e-01,1.516420347592723816e+00,1.419915500857915847e+00
-2.491963840370477357e+00,-1.743929830420455351e+00,-5.735086125909776289e-01,3.462926557794779314e-01,-1.377924896003122957e+00,1.005428496228982782e+00,4.243443809221171537e-02,2.651391952428993060e-01,-1.488463351634382592e-01,4.835345875514454606e-01,-2.154514452259351787e-01,-1.336607969227316728e+00,-7.314225213416640781e-01,9.434152464502498781e-01,3.810877786733249950e-01,-3.414991380324930992e-01,1.366182159498408599e-01,-6.130229603055801224e-01,4.533584811991636654e-01,8.081903245617966247e-01,1.594591288118980987e+00,2.978768968553680008e-01,-9.886029363385526736e-01,-7.964153509297502431e-01,-4.830561000724180598e-01,1.946226044977500846e+00,-8.179342593486244040e-01,-1.000864084900662698e+00,-1.538811696291252362e-01,-1.856472712278688375e+00,-2.065363583024300009e+00,4.804078355479066142e-01
2.748476195587071236e-01,1.235066741023608472e+00,-5.210028370040059587e-01,-1.059661642468943121e+00,1.122790228199227247e+00,5.262054103912606751e-01,3.887067128636141899e-01,-1.597427371583929112e+00,1.058678274853974699e+00,-1.111384558726968286e-01,-1.044257206956151540e+00,-3.857386550418545612e-01,-1.814743070969965510e-01,6.641722894281922862e-01,-1.389125561199987535e+00,-1.005821695693970730e+00,7.661406064296325535e-01,-1.193519875728897839e+00,4.432302547415977179e-01,5.172557151289016719e-01,-6.717823588870505125e-01,3.413668847122031114e-01,3.840538678565716957e-01,-1.419723698443871862e-01,-1.912520064475021486e-01,-7.783743488036904967e-01,3.086320703555374134e-01,-1.972345441236864172e+00,-5.197958564698893502e-01,-1.398511664595429638e+00,-1.795940489037945342e+00,1.405398837374959520e+00
1.246489257411516283e+00,9.192353675695817961e-01,2.083989874001138887e+00,4.283331530398473697e-01,-1.492973928723535959e+00,-1.470655077728821425e+00,3.048166515792188336e-01,3.327781218198440083e-01,-8.333058771985202284e-01,-1.101324270296804020e-01,-8.078686328783870607e-01,9.485737886305878330e-01,-2.067769658333278859e-01,1.598491628303234102e-01,1.125980932106973809e+00,-1.762515882303640202e+00,-1.064094387410102316e+00,-1.757646902286313484e+00,-1.112142788226683082e-01,-7.254114979316412803e-01,5.514879629852661447e-01,1.169555816376170121e+00,-6.858573838805637202e-01,-6.412835432596017959e-01,-2.087141858502158387e-01,4.148621843522951602e-01,2.220141024517865713e-01,1.729812088654374413e-01,7.738833586875989989e-02,1.742072449724791472e+00,7.266110708104665805e-02,6.751581300768667582e-01
1.411010109679695423e+00,3.191765406581648645e-01,1.928735751183458413e+00,1.504458363633672358e+00,8.765242837741323845e-01,3.666891063648373139e-01,-1.337001656708473707e+00,-3.421556279159757019e-01,1.160719530951109579e+00,1.584339637912670629e+00,-5.525802228435801045e-01,2.994101891564115436e-01,1.478562322386719696e+00,-3.057088669806322656e-01,1.150862666224861330e+00,-1.053523520201109787e-01,9.740398873096506316e-01,-4.822817082783806830e-01,6.855290189191959316e-01,-9.085478282972601072e-01,7.300073797461219260e-02,-2.191018649425629516e-01,-1.327160894040482209e+00,2.050458556379163966e+00,-3.354883422469910892e-01,-8.182222984347119477e-01,8.845266545818361026e-01,-2.424642779873386278e+00,3.140101122842048897e-01,-1.896172390210828951e+00,-1.376144876662067196e+00,1.148422190053723924e+00
-9.876517641989538410e-01,-1.398111448028623860e+00,1.173209548381174860e+00,-7.422762424201039266e-01,3.375950486527644068e-01,2.332346136293481365e-01,-4.204935644510906512e-01,-3.664944456311815535e-01,-5.217107496006117007e-01,1.972762663754995538e-01,-9.432287550502947981e-01,1.733450824060959183e+00,-1.341147563086489081e+00,-3.049991493025775990e-01,-4.562839090370890971e-01,-4.131678445952263745e-01,1.449547461901449230e+00,-7.018621175375708843e-01,3.581407006630736856e-01,-6.131922867032860713e-01,7.810775579079503039e-01,6.342356309305147155e-02,-5.512436376447221601e-04,-8.689578964508594128e-01,-2.534610822487197088e-02,-2.579800121714604377e-01,7.065750966388408827e-01,-1.556551316266218343e+00,-4.569595760183096655e-01,2.890436575267729125e-01,-1.264911383875509665e-01,1.577913820657561583e+00
2.725937652184419191e-01,7.119735797017752166e-01,-1.095167625831704461e+00,-5.792773495035481446e-01,-6.108058133194568251e-01,1.334922081099557678e+00,-2.025264285704580836e+00,-3.369028165604777136e-01,-2.665129710138705033e-01,1.250583896346456614e-01,4.527022411136565894e-01,-8.576865664191968275e-01,1.595433977097583611e+00,6.807871833627738845e-01,2.261973371048166953e-02,6.317829212261633076e-01,1.380850360708011926e-01,2.065075253421276846e-01,-5.927192633388390641e-01,-1.036618716843293875e+00,-1.032366024612175887e-01,1.023321322258602173e+00,-1.355671387825664542e+00,5.050922773852333236e-01,4.608190431656866703e-01,2.250267732753113148e-01,-5.752592574644976864e-01,-5.357962813838135219e-01,-2.756078095251086046e-01,9.584807481919206396e-01,-2.328711080526252308e-01,3.158168162587850492e-01
8.367430023502960834e-01,9.981753355944097406e-01,8.078108280334823643e-01,1.021094304819355925e+00,2.836172988451998833e+00,3.884901583583946771e-01,1.174671263736783544e+00,1.876932825767211807e-02,-1.107841505154131684e-01,1.404445833526484777e-01,-7.004378102759438729e-01,-4.198623511815923193e-01,8.705324888092995650e-01,-6.526458155866640132e-01,4.533328662909494877e-01,-4.964343017144161596e-01,2.152764014245695190e+00,2.579904431717895963e-01,-1.549257416423680755e+00,-1.661087008861806269e-01,-8.140576750613074397e-01,-9.579304677806073087e-01,3.360314412022291086e-01,1.498392024215597085e-01,3.594505273576167892e-01,1.241338727487677207e-01,-6.298420195966419888e-01,1.228140454611545307e+00,1.610024775609308068e-01,2.307995917774524064e-01,1.092316140338254860e+00,1.232273406646690272e+00
6.857421811470962858e-01,-3.513994297686813817e-01,-9.496320400355669211e-02,-9.811294706080563033e-02,2.803840997975285895e-02,-3.795272283415752068e-01,1.123266209868605925e+00,-1.633036019980116937e-01,-2.199931376746204204e-01,-1.308049979744833280e+00,1.734804273005819519e+00,-4.314168411665350589e-01,-6.513374562386151090e-02,-7.723306809061604161e-01,-6.511628324952452029e-01,1.852532254019824062e-02,1.544150448819109345e+00,9.482456035075382816e-01,1.617244662287681711e+00,1.114758106146725325e+00,5.334168932227708604e-01,1.980106160340808330e+00,1.365775257205605331e-01,-4.302395802420986848e-01,1.102283042875776609e+00,4.915817567669717447e-01,2.254335688828054685e-02,-2.189531643814318917e-01,1.079178277187865520e+00,-1.884776133134092202e+00,4.129338715256640133e-03,7.684191073888685386e-01
5.476342992537560628e-01,-6.026929885567293699e-01,-1.306805083776635679e-01,6.282322567684481829e-01,7.186844007623638397e-01,2.579007320805547510e-01,5.238003186218522789e-01,1.387288623974831880e+00,1.654863917711471455e+00,-1.331909398095825647e+00,1.012610234991677405e-01,5.329943894281840427e-02,4.780283066276246745e-02,1.677837076862267462e-01,-1.143242121746085527e+00,-3.127703422072643513e-01,-6.609574618120296341e-01,-7.816977852721079811e-01,-6.790575120299523482e-01,4.186612137763726788e-02,-8.400835795690522190e-01,-6.918330215057491017e-01,1.910119859397949316e-01,-7.863167976678044901e-01,-1.235315661664906139e+00,-7.700389870763714173e-01,1.114627396357069200e+00,3.972046090216971304e-01,-1.865761573627548797e+00,1.107124545859123899e+00,-4.290941488303696982e-02,1.820926420462398942e+00
3.403216166572170520e-01,-4.165718030508955283e-01,-7.627214598043791094e-02,-1.559952155080853498e+00,1.520977468879439742e+00,1.019069087105734184e+00,9.556520823081040561e-01,1.092616021911276158e+00,-4.913011874967641024e-01,-1.720510063935982048e+00,1.054217825157232502e+00,9.848087442345501152e-01,7.603329375797855949e-01,-5.811660784159396013e-03,-1.998532912585314347e-01,-1.103797201115013005e+00,1.555430010832953736e+00,-5.965910735569633916e-01,7.722496493240511573e-01,4.575130509158938374e-01,-1.319205386401603342e+00,4.746080366960044872e-01,-2.693636451400211601e-02,4.999427210757600437e-01,-6.007985420599639692e-01,-1.416688873697574014e+00,-1.049565298336823771e+00,8.058159700366172018e-01,5.115517760077550879e-02,1.266734881395658041e+00,1.651382468735181686e+00,-2.563771404728976688e-01
-1.082622697577084958e+00,2.123763750478391277e-01,9.638005390205763856e-01,-2.076824340128665458e+00,4.445340604689583808e-01,-1.781058675413629278e-01,-1.367352801929730743e+00,-1.313689942717007231e+00,4.597673972243730423e-01,1.062613805353510354e+00,7.473168054318871656e-01,-3.024076074751652077e-01,1.855353346606601228e+00,-1.339069060007526346e+00,-1.542769091011812199e-01,4.539465562872815330e-01,-1.300083288983208796e+00,1.846721336007556280e-01,5.192018651282084285e-01,-1.815546194120233103e+00,-9.906173067004800381e-02,9.737279618337633114e-01,1.516811152525202600e+00,9.311239908975402768e-01,1.996900219476412941e-01,-7.827208547901657321e-01,4.460754065588926065e-01,5.093870197319764204e-01,-5.803335070625005310e-01,1.680468208991615225e-02,1.534855882507380809e+00,5.633965730405414707e-01
1.044529109102302566e+00,1.059056140703678484e+00,-2.578015646409966610e+00,1.699283419230276371e+00,2.710703170551131413e-01,2.360646608849626404e-01,4.108314956805843576e-01,-1.007746773410052921e+00,1.900057831967137956e+00,-1.884447157823158636e-01,9.849933037240652389e-01,6.157953916494600666e-01,-5.887423470063753994e-01,-5.354677779856133885e-02,-2.509892625170321967e+00,4.602526562779772901e-01,4.560364516746036601e-01,1.490389425733237294e+00,-7.815845161125533069e-01,-5.680485015039073993e-01,1.422601336073323397e+00,1.975550278981005325e-01,-1.280136280414870376e+00,1.659213604633726913e-01,1.797172138199480962e-01,-6.478854759540182418e-01,1.656932812200083482e+00,-1.472749811010975574e+00,9.536806492638487398e-03,-2.152931691449896601e+00,4.336818523583108043e-01,5.496204140378762037e-01
-2.523761279975606509e-01,9.458537102728009627e-01,2.521085133583158555e+00,-6.316389366257000315e-01,-2.915349058847059860e-01,-1.455094822909353880e+00,-8.790836354741119463e-01,7.981770092733538879e-01,-1.742134348633858631e-01,2.190833561195315138e+00,6.019013977130928117e-01,5.886493812079154897e-02,-1.175553120112644123e+00,1.345978523629552726e+00,-1.035423070552395020e+00,-4.602889442155656541e-01,-1.235272225668352819e+00,1.244110668868443070e-01,-8.501932475376692278e-01,7.723271066330480439e-01,-1.192333932979932509e+00,8.459600140471658092e-01,-6.136424932576417524e-01,1.667924758954346040e-02,5.457634744891213252e-01,3.674582521588724560e-01,-5.795928827186996868e-02,-1.733304452262636630e+00,-8.264745401531633021e-03,-1.067236456540786360e+00,2.480607818216555405e+00,-4.155472562855712093e-01
-1.718307707752369240e-01,3.226660790131843370e-01,-2.150956587865129888e-01,-1.754134821384275011e-01,-2.448771711517573613e-01,-1.450301469727179438e+00,1.074565352070298851e-01,9.687959270441568460e-01,1.468643415257655294e+00,1.650378421933289319e+00,-9.852690777740906736e-01,-6.090612449780237192e-01,3.309885369439704433e-02,-1.050488270696188442e+00,-5.586350127243523422e-01,4.811971867183768015e-01,7.579486117179483617e-01,-1.602291209561932661e-01,-8.349761458546026693e-01,-7.606240560256063432e-01,1.596810365250272534e+00,-6.958710611653670108e-01,-1.242841027444343771e+00,1.648689018805558737e+00,9.527473045712956390e-01,-1.091190421153453771e+00,-4.830803942601146622e-02,-1.139475266970330303e+00,1.066280588980541344e+00,1.548172249074504014e+00,-1.447547790967027126e+00,2.927008171866138930e+00
-3.839111229723362606e-01,-5.747054700110627579e-01,2.665758469371687367e-01,3.986381179566767519e-01,1.653076992038095550e-01,8.974108539764283909e-01,-7.895913715072443162e-02,-1.076988744837092504e+00,6.231444373941609216e-01,9.363256226142258054e-01,-8.483976549075801232e-01,-1.916759495681257530e-01,9.017301245552583611e-01,-5.870553199859345206e-01,1.059984186170055631e+00,-4.416469559108772702e-01,1.585893992630311722e+00,-4.522057707786649727e-01,1.801504003452205183e+00,4.480119993958264768e-01,-1.775139036857915631e+00,6.169805323433729116e-01,-6.076006932270145988e-01,-5.239747017699519782e-01,-2.016101241326728299e+00,8.001684338521433126e-01,8.144300504592376366e-02,4.881888427436366362e-02,1.502047972220678096e+00,1.223409568016733395e+00,-1.294559677216734206e-01,4.387417092215019077e-01
1.403092933541590925e+00,1.470622489541199007e+00,-3.317310653824008249e-01,-1.393211531577368545e-01,1.111130176130048719e+00,3.519501872266478371e-01,1.797471258910699587e+00,-1.929921429898256102e+00,1.900368604202676837e+00,-4.102866214950206536e-01,-9.549398613228551325e-01,-1.044392354430724729e-01,-4.170495260752908329e-01,8.776172474813183078e-01,-9.557932060961668030e-01,-1.517864672150737615e+00,1.413378090973235190e+00,5.349611048371746280e-01,7.810058653091311864e-01,-1.333092485480503742e-01,1.099175684442987577e-01,-2.567436234589600907e+00,-3.336436660178753733e-01,3.663676197201727325e-01,9.989890220923974828e-01,1.323029393096096129e+00,-2.544768133858729131e-01,-2.232767907663248397e-01,7.079248024822150098e-01,-3.938934319847762350e-02,-5.899086131041785253e-01,-1.097923507586594516e+00
1.095198964055336399e-01,-3.477854296536204148e-01,-3.724939704782706529e-01,1.111102502806236236e+00,-8.287634119252101916e-01,5.169832800637014225e-01,-7.425324705663088887e-01,-7.496269673454211691e-02,-3.414193269896393379e-01,7.706497084369146044e-02,6.869162123122054542e-01,-5.327745540969842653e-01,1.585412176201987933e+00,-1.200297043345696313e+00,-6.393532131962176290e-01,2.739161234090405905e-01,1.738953145285512536e-01,6.846420382073786781e-01,-8.085231113183466434e-01,8.285561475856694225e-01,-5.859540286157775002e-01,6.030241666288673752e-01,-3.128525401952540475e-01,-1.333290622050239405e+00,-1.942269834734648148e-01,3.485548045415919338e-01,1.069733754848373630e+00,3.759981164296689882e-02,-1.815517169079684523e-01,-2.580080813706767118e-01,-1.282284042809096025e+00,5.806102456123903854e-01
6.646934612312715984e-01,-5.770995495147306364e-01,2.898067331073928554e-01,1.446920236306137530e+00,-8.884812485127777659e-01,-1.063639227364514328e+00,1.637710722900260207e-01,5.454896266950105543e-01,1.316278641102451186e+00,9.843232956125082256e-02,9.256579756212551802e-01,-1.038672255951628154e+00,-1.552714854184350290e+00,-1.477356984926467831e+00,-3.167423014442621310e-01,-1.059508199363255132e+00,6.345658981534939569e-01,-2.707736490842044264e-01,-1.687378293015557640e+00,7.272285711302418632e-01,1.304774745446627970e-01,-4.806496638946559652e-01,2.355700564895308879e-01,-2.525557433241530370e-01,1.637131556909764862e+00,2.879117638030109783e-01,-2.484763850607297486e-01,9.963127646885179545e-02,2.756624788717748631e-01,-4.639078312261851189e-01,7.218417338707551201e-01,1.629663963801906812e+00
-1.571606625477656838e+00,5.626184334385951891e-01,-2.015388310756492662e-01,-4.481470432345558419e-01,1.097002549524601633e+00,-6.739606144416756539e-01,2.148356088227680871e+00,1.021507901392362250e+00,1.072209084870390017e+00,-2.183547934815281977e+00,8.600143338773841295e-01,-4.074457474278814773e-01,1.434429481921166927e+00,-2.100510047093770538e+00,-1.055657345365630662e-01,-4.102886588294991643e-01,2.517382584403163204e+00,-1.950524864056135455e+00,1.036918445032451341e+00,2.529398125594478852e+00,-1.476970372463649872e-01,2.139689137189095813e+00,-1.373395888372849205e+00,1.292760546922290532e-01,1.125749801213653312e+00,4.614510066901226226e-01,2.252545656585608569e+00,-7.641566136695584488e-01,-1.118563160114296018e+00,-1.474119612947983216e+00,5.186316549261833775e-02,9.378300075034848859e-01
-3.437913658579537235e-01,-5.688042778617063977e-01,-1.495848010186693111e+00,-1.712422207592298351e+00,-1.165048693821471026e+00,6.054448759850796780e-01,2.282858746638967151e+00,4.651412389924894364e-01,-8.419183547846714744e-01,1.498923148171360298e+00,4.121884152179222105e-01,-1.820599464857287908e-01,-4.088535323675884237e-01,-1.078848888666434691e+00,3.056789835985890824e-01,3.177621959232460047e-01,3.639230869878988250e-01,1.247696322342779496e+00,-7.344456342732071930e-01,-6.125429814548167817e-01,-9.216174279992214169e-01,-4.041352511099498557e-01,1.096586984371852314e+00,1.793401202692203933e+00,2.044149795077960241e-01,1.802184490886861390e+00,2.878035986099781507e+00,-2.406305671940377200e-01,1.795867875465401386e+00,1.076056029661020652e+00,1.206629541851673260e+00,-1.337884354446685076e-01
6.338030638989541887e-02,-9.393611666619178235e-01,1.927876778344584652e-01,-2.025602364606901684e+00,-1.228581283614856634e+00,-4.277439254290519299e-01,4.027551688212021586e-01,-9.659468479245140182e-01,1.224101215193138303e+00,-1.060978861291728276e-01,5.703014300694378980e-01,3.606579519628249075e-01,-1.184719642927823530e-01,2.479440851167910242e+00,-1.052561827824773255e+00,1.178638010451116269e+00,5.667937469367828607e-01,-5.512998213137548092e-02,-1.539988044804087242e+00,5.585885331396422959e-01,6.268889715159391418e-01,3.933925824635395863e-01,-1.280464245712206850e+00,1.629549566034540931e+00,3.593140954700859702e-01,1.032801209534855769e+00,6.051860033868914357e-01,1.330706233220177781e+00,-8.183982778300752381e-01,-7.751109597394237882e-01,1.116453177577260814e+00,1.358859927171049087e+00
3.834067170927918378e-01,1.963676973836682438e-02,-1.594147030431505019e-01,3.955903694300036966e-01,-1.663300907260743422e+00,-2.515695693904367314e-01,2.426195614945997114e+00,4.323941693606881548e-02,-3.217466202300030553e-01,-5.809708365598388324e-01,8.186808221748812509e-01,9.210527238588780280e-03,-6.871094254793087552e-01,-8.261466106310725310e-01,-2.624151555081932208e-01,-3.714850599533691677e-01,4.384193766084524269e-01,1.484209216531726216e+00,2.084558516707149867e+00,2.559294936147278876e-01,4.843366861833356407e-01,-1.253743237447372483e+00,4.067246100144216725e-01,5.623381767721534752e-01,-8.020739284416565917e-01,-1.009535155994550210e-02,-1.383453068933404584e+00,-1.119633365730530877e-01,-2.272758605655982755e+00,1.097711908734676500e+00,3.733890039979147479e-01,-1.411313397660886704e+00
-2.475134704638673799e+00,-5.695866163269155957e-02,1.967250352620975862e-01,-5.786977510678629200e-01,-5.771440117608053200e-01,-8.909915707867082091e-01,-2.140053713236558686e+00,7.292682327866396585e-01,5.153427656693299053e-01,8.724349578030591301e-01,1.955406696723737681e-01,-9.848570026921413256e-02,-4.189143296434571506e-01,-5.772599084921802293e-01,3.210244309413735064e-01,8.726391464938203502e-01,-1.932830742211431863e-01,-5.200797610979523977e-01,6.380119377800395064e-01,1.156447817822302992e+00,-1.994800933965028777e+00,-5.873939895935069433e-02,1.120237437887860177e-01,3.769171618106282873e-01,1.085734544011142555e+00,-1.004874647670395582e+00,-9.085827850249494908e-01,-2.900076487312687745e-01,5.065213404939939990e-01,-1.890257109992777851e+00,-6.748313428373029499e-01,7.901559940396610804e-01
-8.052270610197045375e-01,4.879677971086126553e-01,1.458040757505393026e-01,1.438570754261671469e+00,-1.172861853304532298e+00,-4.503825874289317244e-01,-9.719097423948531711e-01,-7.682521630317635797e-01,-3.172427903012072226e-01,4.902609436056831194e-01,1.626621833216683521e+00,6.011356561369919360e-01,6.922828370673915765e-01,2.925287964390826390e-01,1.675170719162675514e-01,3.291975617980143487e-01,2.873905440716404969e-01,-2.320101853899677047e-01,-4.864140398240456298e-01,-6.127217029054174979e-01,1.325396554450735398e-01,-1.334510028218241773e-01,1.485311323833155561e-01,-5.783808018566702902e-01,-1.263298808998125411e+00,3.792500436991389501e-01,1.532736008386431203e+00,-1.550449610385498111e+00,8.222938793812957226e-01,2.750733237562713041e-01,-7.388425297570062611e-01,8.026305901693395750e-01
-4.684156475701270993e-03,1.037966970549993873e+00,-1.852603658375965787e-02,-6.925377010385381782e-01,-8.901334931622464364e-01,-2.473298586779699715e+00,3.354195401419615696e-01,9.947495830204106104e-02,9.578204208836409161e-02,8.769235090467767391e-01,5.217814800487472482e-01,-1.053911098564576321e+00,-3.965463579210704581e-01,-2.722607388047186827e-01,-2.693548893408252362e-02,-6.506772367569557680e-02,-2.340586344396582835e-02,1.451837425584126873e+00,-1.526422298517566389e+00,3.034030534396005563e-01,-1.430416584659164048e-01,-1.357240619705687434e-01,2.659894445060655976e-01,-1.419802268050027738e+00,4.391094513018544698e-01,-4.893013016557966055e-01,-1.722690532602964453e+00,1.597155110709223891e+00,-8.927555423763481324e-01,7.025217923181602542e-01,-1.891039967655994580e+00,-6.281422215661528474e-01
7.740774727912778097e-01,-8.855919099020687080e-01,-1.145236828799470974e+00,2.201162205221666446e-01,-1.809903943707028562e-01,-3.946461138978243355e-01,2.397580597107537237e+00,-1.045369129645074446e+00,3.109580669503342332e-01,-2.259674020190901300e-01,-1.397299852032729550e+00,1.868401424648334919e-01,-1.872747839070024511e+00,-4.968296912349173255e-01,-3.410641734593368724e-01,-5.553544675426357324e-01,-1.006093508983040730e+00,4.345328852993366464e-01,-1.761136451981086815e-01,6.105319126973249855e-01,-6.274774569320869244e-02,-5.320904756796246415e-01,-7.472763920411207295e-02,-8.324366554636859483e-01,1.136867107215929540e+00,5.655739295067211403e-01,1.071899292452657360e+00,-1.179029687602650256e+00,1.411511822233354252e+00,-3.259637330498887375e-01,-9.479656764136413782e-01,-1.833887928610392182e+00
-1.642771566249998372e-01,9.318458485370825217e-01,-1.728836780304937815e+00,-7.323055902403172168e-02,-2.104725709555699709e+00,-2.671942697591665361e+00,2.980618580315501642e-01,2.062936130310812910e+00,1.257267873192043250e+00,-1.082468565490163348e+00,-1.125528390059760353e+00,-1.036979419334554953e+00,-8.496383039829968897e-01,-3.630010343576637322e-01,-2.321438740454293992e+00,-7.686742774635441089e-01,2.242126954065039257e+00,5.507465808804903329e-01,1.143785913111526886e+00,-7.895684819293109502e-01,4.004904435306913535e-01,1.140472221854585300e+00,-7.701757478397470713e-01,1.921865214339220362e-01,1.569488031829747277e+00,-1.890234941089718457e-01,1.313616063458822980e+00,-1.273735174687346428e+00,-4.060229533158195014e-01,3.330227856609673243e-01,4.664109754868533408e-01,9.369328145513381445e-01
