4.849456952296511414e-01,-1.274841733802156429e-01,-5.353917765830838033e-02,4.899318761731809579e-01,-1.106513149782219596e+00,4.661570576450651399e-02,1.574364784312637822e+00,7.872235019938591538e-01,9.229688936916766173e-02,-1.923990092784015227e+00,9.406774763046741317e-01,-8.015106976045683895e-01,-1.264898652237596899e+00,6.452242185564620591e-01,-3.615053073085527369e-01,5.907379382807390611e-01
-1.287246637064510812e+00,-2.269440325339951325e+00,2.509715196964089623e-01,9.963471287726977099e-01,-1.051762715607706955e+00,-5.566266921596285666e-01,-4.180624632011798597e-02,1.348323714416119201e-01,-9.555843831306216618e-01,2.350934237027919593e+00,7.428449413742461704e-01,-1.124885850649926411e+00,-9.007981384948880038e-03,1.199378122176897765e+00,4.157648689936703224e-01,-9.245542633365694263e-01
-4.148606287245489854e-01,-1.725841354701451724e+00,-2.708094089595883616e-02,1.022562292900440539e+00,-1.089188137026583014e+00,1.182090615332187788e-01,-1.888708339882505527e+00,-3.084062155863718790e-01,-2.180404095682864973e+00,9.276668564887971535e-02,-7.626653728507134522e-01,1.837553354849007503e-01,5.277424429182957510e-01,5.560385133913468142e-03,-8.816618415063065539e-02,2.029629874008286539e+00
-3.246688752993216135e-03,1.165647390369739245e-01,6.516465371376393978e-02,-6.802274651975085407e-01,-2.721505916881806694e-02,-1.521933205076048345e+00,-8.899524900248670933e-01,1.121448180745108214e+00,2.137482365835288722e-01,3.707394438478122667e-01,2.506060444357026906e+00,-8.071421553041555619e-01,-6.079748817801803977e-04,3.570745065831358867e-01,-1.162085953461649668e+00,1.078470314777058237e+00
2.612763658724192251e+00,5.098358418736490538e-01,8.964747800661925226e-01,2.958738271433923872e-01,-1.368292964755990937e+00,-4.949762599471244778e-02,-3.572860110637719466e-01,-7.405530996286439072e-01,3.580251789954071451e-01,1.137754869859623597e+00,-4.419954612095708391e-01,-1.828702855068578659e+00,-1.637882453352364376e+00,-2.722892739465613277e-01,-8.035738409523343062e-01,3.477638363399318533e-01
-2.152264551725088237e-01,-1.074123039558071646e+00,5.373688045837535787e-01,8.630786357777987527e-01,2.097741167722861899e+00,-6.945868835803837849e-01,-3.603445656491284510e-02,1.113802802188454066e+00,1.036791214140495798e+00,-8.480589348559819385e-01,2.169415296141084804e-01,1.302095221330036967e+00,1.055069925737345260e+00,-5.238316557786448779e-01,-4.222580137398026512e-01,7.654099732884490637e-01
4.052134117435063909e-01,1.351121967477356245e+00,1.042914734182503356e+00,1.466628657868447760e+00,2.316684492306109178e-01,-8.929084163398005869e-02,8.992750382052850933e-01,8.640229921021278514e-01,-8.723369654702024523e-01,9.318156603830877183e-01,2.324478490226249694e-01,2.467762715836840037e+00,2.837002440617767629e+00,1.562649408982946519e-01,-1.056509065617182053e+00,6.857038699341307109e-02
1.168208109825628505e+00,-5.800034953678964156e-01,-2.874452508518992033e-01,6.361532179810680532e-01,-4.125421433980990260e-01,7.742462627937672925e-01,-1.796719637074476239e+00,-4.912660526987201459e-01,4.097245665757408978e-02,5.043274298602030692e-01,-1.029141081913660827e+00,-1.411539057977094114e+00,-4.135838958813690680e-01,3.440180550829963213e-01,8.443323854049713528e-01,1.527565530011379125e-01
2.227192463128931266e+00,7.759564606217416172e-01,3.405733607845331523e-01,1.629894945537808004e+00,1.804978841479810137e-01,1.414695895420759131e+00,1.341266302792851306e+00,-9.266283173036794496e-01,-3.371805260092314849e-01,-2.292958010509132949e-01,5.648899373891522746e-01,2.278887413331406986e+00,2.753880791415810880e-01,1.365215881319451485e+00,2.524659276900845239e-01,-3.386257403610056782e-01
1.031997387403781774e+00,-2.129830107699008046e+00,6.257010779639068376e-01,-5.472718122978774691e-01,8.268034543030194916e-01,4.497743654354520448e-02,-2.056186606443046738e+00,-1.674612140507062419e-01,-1.899554808162131625e+00,6.817409375521242820e-01,1.371444584407935652e-01,-1.622353173880512589e+00,-1.626014739672422715e+00,-1.692228040799056865e+00,-9.547548994297314073e-02,8.233597053824054379e-01
-5.693113753824000645e-01,-1.856466487902341811e+00,2.087475036074073032e+00,8.666385016227559079e-01,-2.509351935681276569e+00,1.834041722689776915e-02,-9.469941685898155548e-01,-3.673317723844518601e-01,-2.789208450054150301e-01,-3.300600404267490795e-01,2.478236422587740684e+00,-1.284554859298316698e+00,7.007483240136860303e-01,1.475377218915624733e-01,7.280104837432823661e-01,-1.295012470824331852e-01
-1.134589967588803594e+00,3.359494063574848532e-02,-7.561745638552951343e-01,-4.923946248327905617e-01,-3.560008571644864839e-01,-1.519995103987925589e-02,-1.089101029949347987e+00,2.105079734715422646e+00,1.036674263338063784e-02,2.096945553724551270e-01,-9.392723351020892952e-01,2.166077791874718161e-01,1.023166037067739120e+00,5.495080090350016322e-01,-5.005541236443014075e-01,-2.672174542438680689e+00
-1.309362730714092926e+00,-1.362838489419116783e+00,8.842601051063730955e-01,2.749691152950501857e-02,8.801723241911169060e-01,3.478864688970839669e-01,-3.585455750868532521e-01,-3.047173111637288545e-01,-9.296596981333326085e-03,-1.863377327611066558e+00,1.480089150571140821e-01,-1.428020436252976255e+00,5.130513507736877022e-04,-1.133830816920106122e-01,3.182256151358592855e-01,9.690750402737193792e-01
-1.276155158876548290e+00,-8.852813733489242054e-01,5.705722802895084600e-01,6.633447586183524036e-01,4.552839781684642761e-01,-8.721892499230894380e-01,-8.550007014183964582e-01,-1.259696244740561966e+00,1.761146087971831253e+00,-6.290627028759118167e-01,4.670019667490230564e-01,5.773020006621822908e-01,-3.548903878098730313e-01,-7.140718366902256697e-01,-4.940405311405545730e-01,5.361335791884537239e-01
-5.639498847729618181e-01,-2.976753984284173371e-01,6.644313448766184793e-01,-1.342189907230602608e-01,-4.675290427859094544e-01,1.780459691131403677e+00,-4.072749762187316547e-01,1.014572759428400195e+00,6.389493293704384680e-02,4.190400220798583264e-02,-1.679859552106691689e-01,-1.086356320798383290e+00,-3.964307096830454458e-01,1.749066322404608798e+00,1.025000982702647251e-01,1.487693660114531857e+00
4.084801275829094136e-01,-7.775049714121291533e-01,-3.963924233848200585e-01,4.238673559954655445e-01,7.913624617048645726e-01,-2.348757730908357100e-01,-6.886268980053970035e-01,-1.248479797002953307e+00,1.944026259931313394e+00,-1.010220609600652297e+00,4.256904396086090281e-01,-9.482205091088792281e-01,-4.886679004351061062e-01,8.420268678833665588e-01,-6.162151003516241898e-01,5.275353226253739480e-01
-3.807116608321027829e-01,-9.572979975650278694e-01,6.455668915054429968e-01,6.402596671112656956e-01,1.437496159667300155e+00,9.934869988340065683e-02,1.746428800670395631e+00,1.867966829308304044e+00,8.098544349721323865e-01,-1.544586942906930549e+00,-3.695204904260133705e-01,-1.151727206931267400e+00,-6.604686177883203335e-01,2.356861076093941521e-01,1.073873595295879779e+00,-7.607362404034547776e-01
-1.478145609993948506e+00,-3.280184793241234242e-01,-2.008795123368789071e+00,4.618274553820536088e-01,-4.651514309893518134e-02,-1.240976728032661125e+00,-1.603995908395287939e+00,1.396925348229368924e-01,-6.411215753772208092e-01,4.847045088399372648e-01,2.250429348214042946e+00,1.209924140212507604e+00,1.269297559164202838e+00,-3.753343514677334625e+00,9.434739527302405948e-01,6.003230617064617691e-01
1.251723737995948660e-01,2.036355066495358912e+00,1.453823098773766143e+00,-9.921638458278009276e-01,8.152483534393178966e-01,-2.378555225875492452e-01,6.651532524683326786e-01,-9.400838652495876469e-01,-1.005953059455480636e+00,-8.122905449211378359e-01,1.193810142254363438e+00,-7.822160687451777950e-01,2.116863346716066463e+00,-2.294682922225748545e+00,1.069563810905670431e+00,1.731744734340408209e+00
9.018940983819475621e-01,9.164447136754513279e-01,7.609431236870374260e-01,-3.295561395118459247e-01,7.979344192422199722e-01,1.181709028863613176e+00,7.460599568830749151e-01,6.635028301641054949e-01,-1.974751921348830708e-01,-1.244697784950870911e+00,6.841232326468460467e-01,-1.075995458299823238e+00,-1.188205064920761167e+00,-4.559596679640363637e-01,1.757144099222549688e-02,3.892281051406968895e-01
1.240774729839670520e+00,1.929398217653882419e+00,1.217377846258631990e+00,6.263508267102121385e-01,-6.174099892544701040e-01,-5.737986117271144382e-01,-3.637609160976949529e-01,-1.034967383230844584e+00,3.370266227039949158e-01,4.561205106816025867e-01,-1.950773380465236517e+00,8.893059706333696912e-01,-7.120070390792869741e-01,-2.330226209740006958e-03,-2.450823935834460343e+00,-2.051010740674838129e+00
2.618589465474015221e-02,-7.168675687321925949e-01,5.742719204617199348e-03,-8.896170789048878369e-01,1.791630082498397503e+00,-1.090528877558540194e-01,-1.687225963202002021e-01,4.986860717278892019e-01,-7.487192971306275702e-01,-2.154949395064595374e-01,2.132836850779272986e+00,9.197042880426965772e-02,-2.004618693457962397e+00,-2.626176635312587465e-02,-1.071356895920251517e+00,5.478909661998780933e-01
9.346136731200849201e-02,1.242939242035608682e+00,-9.947389320220419995e-01,1.447101423851473667e+00,-1.948479548397570760e+00,7.603548992893667258e-01,-1.423509073123920277e-01,-1.706847737559226585e+00,5.699587086242261513e-01,3.398278688626604760e-01,7.763729500387065441e-01,-1.484858304546325058e+00,4.978788595604774492e-01,-5.765331191014860801e-01,1.581870406444393806e+00,-1.379675862512468563e-02
8.832474576944835398e-01,-1.345171448986977714e+00,-4.598661328917836855e-01,6.429832127718856372e-01,1.644226255040250884e-01,-4.079905496357392747e-01,-5.123597373776950237e-01,-3.517154901284925694e-01,6.129039282625954321e-01,-1.483536479935704921e+00,-3.651843421304971082e-01,8.595485178708855978e-01,-4.188753894339559136e-01,-7.597251600289558482e-01,1.301203420325463433e+00,-1.309517151399615553e+00
-9.590425466810531541e-01,2.735913627071823728e-01,-3.320862364801851485e-01,1.388598139751010541e+00,1.791512843051951354e+00,-1.340920315068273583e+00,2.943573727401673779e-01,-4.277798566364784394e-01,5.297828416950773889e-01,-1.931067414040732455e+00,-2.766702245474289557e-01,1.530912808897045618e+00,1.318908770987033741e+00,2.372101378132470018e+00,-9.451517865305177901e-01,8.232684493022048022e-02
-1.747455974774293708e+00,-3.141875964427534029e-01,1.206880352179944715e+00,1.256379880603649690e+00,8.680144845189316505e-02,9.510155749594522145e-01,-9.095957931747838954e-01,1.143925226443806981e-01,-1.006163929586974204e+00,-5.737874273987868534e-01,1.324919831539600745e-01,-1.943994436088769193e-02,-4.287388506687476730e-01,-1.891445632124038323e-01,-2.127601290237718934e-01,1.881167666266837069e+00
-1.181988473778195353e-01,-8.851998030425953790e-01,-8.703811109496047971e-01,7.030870203024708331e-01,1.358809167895743908e+00,5.598712024141951071e-02,1.679256088300795091e-01,2.953356469191961708e-01,-3.697984394303154287e-01,4.121277815153022439e-02,7.045471177778794836e-01,-8.551185086261723356e-01,-1.797605384637211534e+00,9.170043973514377944e-01,2.912512231138761343e-01,-7.803156989102564278e-01
-1.559863732519603641e+00,-3.234238550533276024e-01,-6.295414766480471602e-01,6.890854985828843704e-01,-8.143738294667260957e-01,1.912641718864163329e-02,-2.541913258604630022e-01,-5.646973821267401439e-01,-4.556690099188402954e-01,1.297789549746230842e+00,-4.431465735348531082e-02,-7.750468738835002425e-01,4.715792660643840506e-01,-1.713286254335845138e-01,-1.061762393012185335e+00,-9.357974248361822234e-01
-1.054708288470435074e+00,-1.319255592378610231e+00,-3.539735217542965828e-01,1.192457206027761618e+00,-5.105965776520720034e-01,-6.364830468792531670e-01,5.935707787878304886e-01,-1.461225664046208461e-01,-5.573743526924077596e-01,-9.295541367808969335e-01,-2.610314478690930251e+00,-1.890559515327234000e-02,8.471048013453082171e-02,-6.056055212230697649e-01,-4.687246511278385375e-02,4.446863572783630314e-01
-5.564743537081806579e-01,-2.294095475618661978e-02,1.075828289872593713e+00,9.550872393357578982e-01,3.966227415489597674e-01,4.923090684751705859e-01,7.858187020698598202e-01,1.916304771917477945e+00,4.052911237355873442e-01,9.285312380657574360e-01,3.719212137057032463e-01,-1.724466461234492209e+00,-6.981972736206152330e-01,3.254091455034095470e-01,-1.973616950429731287e-01,-1.214399118585069104e+00
1.384008585933197200e+00,3.649029123782467354e-01,-1.717715365325461541e+00,1.697073064213612703e+00,-1.494938588647126698e+00,-1.510360623690914783e-01,-1.271031469940436809e+00,1.107181014871028601e+00,4.786636104502448724e-02,9.368013828623151795e-01,8.288475153907931547e-01,-9.646495599418223321e-01,-1.320340585144730572e-01,-3.521678826403881191e-01,-5.429552219707809435e-01,1.680898654668329939e-01
-1.173742962160823522e+00,2.206828181347961326e+00,7.443942293284229184e-01,-3.192017940227472872e-01,2.534033592181527128e-01,-6.082569476719892898e-02,-1.699950936625962417e+00,3.051937539643255093e+00,-8.162593376422573321e-01,-1.079701930639218377e+00,2.085156134996094313e+00,-6.644866993673850253e-01,1.621512195959947222e+00,-3.168046267860729626e-01,-2.703196159508221008e-01,1.102998030613112412e+00
